Language model created by QuickLM on Mon Nov 16 10:07:01 EST 2020
Copyright (c) 1996-2010 Carnegie Mellon University and Alexander I. Rudnicky

The model is in standard ARPA format, designed by Doug Paul while he was at MITRE.

The code that was used to produce this language model is available in Open Source.
Please visit http://www.speech.cs.cmu.edu/tools/ for more information

The (fixed) discount mass is 0.5. The backoffs are computed using the ratio method.
This model based on a corpus of 100 sentences and 102 words

\data\
ngram 1=102
ngram 2=200
ngram 3=100

\1-grams:
-0.7782 </s> -0.3010
-0.7782 <s> -0.2218
-2.7782 A -0.2218
-2.7782 ABOUT -0.2218
-2.7782 AFTER -0.2218
-2.7782 ALL -0.2218
-2.7782 ALSO -0.2218
-2.7782 AN -0.2218
-2.7782 AND -0.2218
-2.7782 ANY -0.2218
-2.7782 AS -0.2218
-2.7782 AT -0.2218
-2.7782 BACK -0.2218
-2.7782 BE -0.2218
-2.7782 BECAUSE -0.2218
-2.7782 BUT -0.2218
-2.7782 BY -0.2218
-2.7782 CAN -0.2218
-2.7782 COME -0.2218
-2.7782 COULD -0.2218
-2.7782 DAY -0.2218
-2.7782 DO -0.2218
-2.7782 EVEN -0.2218
-2.7782 FIRST -0.2218
-2.7782 FOR -0.2218
-2.7782 FROM -0.2218
-2.7782 GET -0.2218
-2.7782 GIVE -0.2218
-2.7782 GO -0.2218
-2.7782 GOOD -0.2218
-2.7782 HAVE -0.2218
-2.7782 HE -0.2218
-2.7782 HER -0.2218
-2.7782 HIM -0.2218
-2.7782 HIS -0.2218
-2.7782 HOW -0.2218
-2.7782 I -0.2218
-2.7782 IF -0.2218
-2.7782 IN -0.2218
-2.7782 INTO -0.2218
-2.7782 IT -0.2218
-2.7782 ITS -0.2218
-2.7782 JUST -0.2218
-2.7782 KNOW -0.2218
-2.7782 LIKE -0.2218
-2.7782 LOOK -0.2218
-2.7782 MAKE -0.2218
-2.7782 ME -0.2218
-2.7782 MOST -0.2218
-2.7782 MY -0.2218
-2.7782 NEW -0.2218
-2.7782 NO -0.2218
-2.7782 NOT -0.2218
-2.7782 NOW -0.2218
-2.7782 OF -0.2218
-2.7782 ON -0.2218
-2.7782 ONE -0.2218
-2.7782 ONLY -0.2218
-2.7782 OR -0.2218
-2.7782 OTHER -0.2218
-2.7782 OUR -0.2218
-2.7782 OUT -0.2218
-2.7782 OVER -0.2218
-2.7782 PEOPLE -0.2218
-2.7782 SAY -0.2218
-2.7782 SEE -0.2218
-2.7782 SHE -0.2218
-2.7782 SO -0.2218
-2.7782 SOME -0.2218
-2.7782 TAKE -0.2218
-2.7782 THAN -0.2218
-2.7782 THAT -0.2218
-2.7782 THE -0.2218
-2.7782 THEIR -0.2218
-2.7782 THEM -0.2218
-2.7782 THEN -0.2218
-2.7782 THERE -0.2218
-2.7782 THESE -0.2218
-2.7782 THEY -0.2218
-2.7782 THINK -0.2218
-2.7782 THIS -0.2218
-2.7782 TIME -0.2218
-2.7782 TO -0.2218
-2.7782 TWO -0.2218
-2.7782 UP -0.2218
-2.7782 US -0.2218
-2.7782 USE -0.2218
-2.7782 WANT -0.2218
-2.7782 WAY -0.2218
-2.7782 WE -0.2218
-2.7782 WELL -0.2218
-2.7782 WHAT -0.2218
-2.7782 WHEN -0.2218
-2.7782 WHICH -0.2218
-2.7782 WHO -0.2218
-2.7782 WILL -0.2218
-2.7782 WITH -0.2218
-2.7782 WORK -0.2218
-2.7782 WOULD -0.2218
-2.7782 YEAR -0.2218
-2.7782 YOU -0.2218
-2.7782 YOUR -0.2218

\2-grams:
-2.3010 <s> A 0.0000
-2.3010 <s> ABOUT 0.0000
-2.3010 <s> AFTER 0.0000
-2.3010 <s> ALL 0.0000
-2.3010 <s> ALSO 0.0000
-2.3010 <s> AN 0.0000
-2.3010 <s> AND 0.0000
-2.3010 <s> ANY 0.0000
-2.3010 <s> AS 0.0000
-2.3010 <s> AT 0.0000
-2.3010 <s> BACK 0.0000
-2.3010 <s> BE 0.0000
-2.3010 <s> BECAUSE 0.0000
-2.3010 <s> BUT 0.0000
-2.3010 <s> BY 0.0000
-2.3010 <s> CAN 0.0000
-2.3010 <s> COME 0.0000
-2.3010 <s> COULD 0.0000
-2.3010 <s> DAY 0.0000
-2.3010 <s> DO 0.0000
-2.3010 <s> EVEN 0.0000
-2.3010 <s> FIRST 0.0000
-2.3010 <s> FOR 0.0000
-2.3010 <s> FROM 0.0000
-2.3010 <s> GET 0.0000
-2.3010 <s> GIVE 0.0000
-2.3010 <s> GO 0.0000
-2.3010 <s> GOOD 0.0000
-2.3010 <s> HAVE 0.0000
-2.3010 <s> HE 0.0000
-2.3010 <s> HER 0.0000
-2.3010 <s> HIM 0.0000
-2.3010 <s> HIS 0.0000
-2.3010 <s> HOW 0.0000
-2.3010 <s> I 0.0000
-2.3010 <s> IF 0.0000
-2.3010 <s> IN 0.0000
-2.3010 <s> INTO 0.0000
-2.3010 <s> IT 0.0000
-2.3010 <s> ITS 0.0000
-2.3010 <s> JUST 0.0000
-2.3010 <s> KNOW 0.0000
-2.3010 <s> LIKE 0.0000
-2.3010 <s> LOOK 0.0000
-2.3010 <s> MAKE 0.0000
-2.3010 <s> ME 0.0000
-2.3010 <s> MOST 0.0000
-2.3010 <s> MY 0.0000
-2.3010 <s> NEW 0.0000
-2.3010 <s> NO 0.0000
-2.3010 <s> NOT 0.0000
-2.3010 <s> NOW 0.0000
-2.3010 <s> OF 0.0000
-2.3010 <s> ON 0.0000
-2.3010 <s> ONE 0.0000
-2.3010 <s> ONLY 0.0000
-2.3010 <s> OR 0.0000
-2.3010 <s> OTHER 0.0000
-2.3010 <s> OUR 0.0000
-2.3010 <s> OUT 0.0000
-2.3010 <s> OVER 0.0000
-2.3010 <s> PEOPLE 0.0000
-2.3010 <s> SAY 0.0000
-2.3010 <s> SEE 0.0000
-2.3010 <s> SHE 0.0000
-2.3010 <s> SO 0.0000
-2.3010 <s> SOME 0.0000
-2.3010 <s> TAKE 0.0000
-2.3010 <s> THAN 0.0000
-2.3010 <s> THAT 0.0000
-2.3010 <s> THE 0.0000
-2.3010 <s> THEIR 0.0000
-2.3010 <s> THEM 0.0000
-2.3010 <s> THEN 0.0000
-2.3010 <s> THERE 0.0000
-2.3010 <s> THESE 0.0000
-2.3010 <s> THEY 0.0000
-2.3010 <s> THINK 0.0000
-2.3010 <s> THIS 0.0000
-2.3010 <s> TIME 0.0000
-2.3010 <s> TO 0.0000
-2.3010 <s> TWO 0.0000
-2.3010 <s> UP 0.0000
-2.3010 <s> US 0.0000
-2.3010 <s> USE 0.0000
-2.3010 <s> WANT 0.0000
-2.3010 <s> WAY 0.0000
-2.3010 <s> WE 0.0000
-2.3010 <s> WELL 0.0000
-2.3010 <s> WHAT 0.0000
-2.3010 <s> WHEN 0.0000
-2.3010 <s> WHICH 0.0000
-2.3010 <s> WHO 0.0000
-2.3010 <s> WILL 0.0000
-2.3010 <s> WITH 0.0000
-2.3010 <s> WORK 0.0000
-2.3010 <s> WOULD 0.0000
-2.3010 <s> YEAR 0.0000
-2.3010 <s> YOU 0.0000
-2.3010 <s> YOUR 0.0000
-0.3010 A </s> -0.3010
-0.3010 ABOUT </s> -0.3010
-0.3010 AFTER </s> -0.3010
-0.3010 ALL </s> -0.3010
-0.3010 ALSO </s> -0.3010
-0.3010 AN </s> -0.3010
-0.3010 AND </s> -0.3010
-0.3010 ANY </s> -0.3010
-0.3010 AS </s> -0.3010
-0.3010 AT </s> -0.3010
-0.3010 BACK </s> -0.3010
-0.3010 BE </s> -0.3010
-0.3010 BECAUSE </s> -0.3010
-0.3010 BUT </s> -0.3010
-0.3010 BY </s> -0.3010
-0.3010 CAN </s> -0.3010
-0.3010 COME </s> -0.3010
-0.3010 COULD </s> -0.3010
-0.3010 DAY </s> -0.3010
-0.3010 DO </s> -0.3010
-0.3010 EVEN </s> -0.3010
-0.3010 FIRST </s> -0.3010
-0.3010 FOR </s> -0.3010
-0.3010 FROM </s> -0.3010
-0.3010 GET </s> -0.3010
-0.3010 GIVE </s> -0.3010
-0.3010 GO </s> -0.3010
-0.3010 GOOD </s> -0.3010
-0.3010 HAVE </s> -0.3010
-0.3010 HE </s> -0.3010
-0.3010 HER </s> -0.3010
-0.3010 HIM </s> -0.3010
-0.3010 HIS </s> -0.3010
-0.3010 HOW </s> -0.3010
-0.3010 I </s> -0.3010
-0.3010 IF </s> -0.3010
-0.3010 IN </s> -0.3010
-0.3010 INTO </s> -0.3010
-0.3010 IT </s> -0.3010
-0.3010 ITS </s> -0.3010
-0.3010 JUST </s> -0.3010
-0.3010 KNOW </s> -0.3010
-0.3010 LIKE </s> -0.3010
-0.3010 LOOK </s> -0.3010
-0.3010 MAKE </s> -0.3010
-0.3010 ME </s> -0.3010
-0.3010 MOST </s> -0.3010
-0.3010 MY </s> -0.3010
-0.3010 NEW </s> -0.3010
-0.3010 NO </s> -0.3010
-0.3010 NOT </s> -0.3010
-0.3010 NOW </s> -0.3010
-0.3010 OF </s> -0.3010
-0.3010 ON </s> -0.3010
-0.3010 ONE </s> -0.3010
-0.3010 ONLY </s> -0.3010
-0.3010 OR </s> -0.3010
-0.3010 OTHER </s> -0.3010
-0.3010 OUR </s> -0.3010
-0.3010 OUT </s> -0.3010
-0.3010 OVER </s> -0.3010
-0.3010 PEOPLE </s> -0.3010
-0.3010 SAY </s> -0.3010
-0.3010 SEE </s> -0.3010
-0.3010 SHE </s> -0.3010
-0.3010 SO </s> -0.3010
-0.3010 SOME </s> -0.3010
-0.3010 TAKE </s> -0.3010
-0.3010 THAN </s> -0.3010
-0.3010 THAT </s> -0.3010
-0.3010 THE </s> -0.3010
-0.3010 THEIR </s> -0.3010
-0.3010 THEM </s> -0.3010
-0.3010 THEN </s> -0.3010
-0.3010 THERE </s> -0.3010
-0.3010 THESE </s> -0.3010
-0.3010 THEY </s> -0.3010
-0.3010 THINK </s> -0.3010
-0.3010 THIS </s> -0.3010
-0.3010 TIME </s> -0.3010
-0.3010 TO </s> -0.3010
-0.3010 TWO </s> -0.3010
-0.3010 UP </s> -0.3010
-0.3010 US </s> -0.3010
-0.3010 USE </s> -0.3010
-0.3010 WANT </s> -0.3010
-0.3010 WAY </s> -0.3010
-0.3010 WE </s> -0.3010
-0.3010 WELL </s> -0.3010
-0.3010 WHAT </s> -0.3010
-0.3010 WHEN </s> -0.3010
-0.3010 WHICH </s> -0.3010
-0.3010 WHO </s> -0.3010
-0.3010 WILL </s> -0.3010
-0.3010 WITH </s> -0.3010
-0.3010 WORK </s> -0.3010
-0.3010 WOULD </s> -0.3010
-0.3010 YEAR </s> -0.3010
-0.3010 YOU </s> -0.3010
-0.3010 YOUR </s> -0.3010

\3-grams:
-0.3010 <s> A </s>
-0.3010 <s> ABOUT </s>
-0.3010 <s> AFTER </s>
-0.3010 <s> ALL </s>
-0.3010 <s> ALSO </s>
-0.3010 <s> AN </s>
-0.3010 <s> AND </s>
-0.3010 <s> ANY </s>
-0.3010 <s> AS </s>
-0.3010 <s> AT </s>
-0.3010 <s> BACK </s>
-0.3010 <s> BE </s>
-0.3010 <s> BECAUSE </s>
-0.3010 <s> BUT </s>
-0.3010 <s> BY </s>
-0.3010 <s> CAN </s>
-0.3010 <s> COME </s>
-0.3010 <s> COULD </s>
-0.3010 <s> DAY </s>
-0.3010 <s> DO </s>
-0.3010 <s> EVEN </s>
-0.3010 <s> FIRST </s>
-0.3010 <s> FOR </s>
-0.3010 <s> FROM </s>
-0.3010 <s> GET </s>
-0.3010 <s> GIVE </s>
-0.3010 <s> GO </s>
-0.3010 <s> GOOD </s>
-0.3010 <s> HAVE </s>
-0.3010 <s> HE </s>
-0.3010 <s> HER </s>
-0.3010 <s> HIM </s>
-0.3010 <s> HIS </s>
-0.3010 <s> HOW </s>
-0.3010 <s> I </s>
-0.3010 <s> IF </s>
-0.3010 <s> IN </s>
-0.3010 <s> INTO </s>
-0.3010 <s> IT </s>
-0.3010 <s> ITS </s>
-0.3010 <s> JUST </s>
-0.3010 <s> KNOW </s>
-0.3010 <s> LIKE </s>
-0.3010 <s> LOOK </s>
-0.3010 <s> MAKE </s>
-0.3010 <s> ME </s>
-0.3010 <s> MOST </s>
-0.3010 <s> MY </s>
-0.3010 <s> NEW </s>
-0.3010 <s> NO </s>
-0.3010 <s> NOT </s>
-0.3010 <s> NOW </s>
-0.3010 <s> OF </s>
-0.3010 <s> ON </s>
-0.3010 <s> ONE </s>
-0.3010 <s> ONLY </s>
-0.3010 <s> OR </s>
-0.3010 <s> OTHER </s>
-0.3010 <s> OUR </s>
-0.3010 <s> OUT </s>
-0.3010 <s> OVER </s>
-0.3010 <s> PEOPLE </s>
-0.3010 <s> SAY </s>
-0.3010 <s> SEE </s>
-0.3010 <s> SHE </s>
-0.3010 <s> SO </s>
-0.3010 <s> SOME </s>
-0.3010 <s> TAKE </s>
-0.3010 <s> THAN </s>
-0.3010 <s> THAT </s>
-0.3010 <s> THE </s>
-0.3010 <s> THEIR </s>
-0.3010 <s> THEM </s>
-0.3010 <s> THEN </s>
-0.3010 <s> THERE </s>
-0.3010 <s> THESE </s>
-0.3010 <s> THEY </s>
-0.3010 <s> THINK </s>
-0.3010 <s> THIS </s>
-0.3010 <s> TIME </s>
-0.3010 <s> TO </s>
-0.3010 <s> TWO </s>
-0.3010 <s> UP </s>
-0.3010 <s> US </s>
-0.3010 <s> USE </s>
-0.3010 <s> WANT </s>
-0.3010 <s> WAY </s>
-0.3010 <s> WE </s>
-0.3010 <s> WELL </s>
-0.3010 <s> WHAT </s>
-0.3010 <s> WHEN </s>
-0.3010 <s> WHICH </s>
-0.3010 <s> WHO </s>
-0.3010 <s> WILL </s>
-0.3010 <s> WITH </s>
-0.3010 <s> WORK </s>
-0.3010 <s> WOULD </s>
-0.3010 <s> YEAR </s>
-0.3010 <s> YOU </s>
-0.3010 <s> YOUR </s>

\end\
